-2.631894705930308831e-01 4.285756639011518487e+00 1.458294805794345450e+00 -1.993096342292568490e+00 3.856010447903599925e+00 -1.291643834414261949e-01 3.522046163550240028e+00 3.651401682298128559e+00 -1.161703766038947805e+01 -1.834461490060928179e+00 4.004024018465832668e+00 -4.090045643965745548e+00 1.967680683868253474e-05 1.620694210228609045e+00 1.088160427006851805e+01 -4.853741846752880562e+00 -2.913116046171796647e+00 1.136558118366871595e+00 6.797481182578949399e-01 1.560520585761722145e+00 -2.200197842155730665e+00 4.299663432062119206e+00 -1.909318789569975028e+00 -1.339804070027194927e+00 -7.733304921702799373e-01 -2.101989388204400733e+00 2.421139687761626913e+00 4.470665441381940219e+00 9.845637529825632228e+00 8.117305455236688630e-04 8.774044332377045619e-01 -8.686852458861331172e+00 8.160257027984124889e+00 -1.028675368693906030e-08 1.553399078468715722e+01 2.275220284635288692e+00 -8.436381326051236584e+00 2.777219634455952768e+00 -2.659738466369581111e+00 -7.633080719771776934e+00 5.721433667972433135e+00 2.191865904532564358e+00 2.777588247007160227e+00 2.178806431787039255e+00 1.745251042563004257e-02 7.079899802722978697e-01 9.519466201546940454e+00 -2.531814071185388926e+00 -1.774366860207864383e+00 2.589884724084598466e-01 3.676156315970662281e+00 5.071427071394010722e-02 -1.596634330049289341e+00 3.117475471044824364e-01 -1.797577378991737529e+00 -2.572356685644741958e+00 -3.485512248392426127e+00 2.269762061409190235e+00 -1.320851495953302868e+00 4.745328178017999693e-02 1.679544268174959942e+00 8.296089716873992215e-01 -2.744078062719486066e+00 -3.125536694949701211e+00 -1.173105534853982279e+00 -6.010351634924695929e+00 -8.282913459705959269e+00 4.236330820894521842e+00 -1.311741252018891402e+01 -6.390808527112309401e-01 3.542641069395990439e+00 -6.504720251452932978e+00 2.528795675467069959e+00 -1.540147352443630213e+00 8.127241494551107337e+00 -7.655504703462358229e+00 1.643715007763539404e+00 7.374709729879701525e-01 -2.634141263921595755e+00 6.361447207421911720e+00
