-2.499136372136750162e-01 4.284101285336030074e+00 1.598267197608195689e+00 -2.093037737634916073e+00 3.810298874491560017e+00 -1.291652221104654386e-01 3.491425287909672104e+00 3.540563474632389518e+00 -1.180049406977043347e+01 -1.927646317655185459e+00 3.532441861589662224e+00 -4.158597781623583955e+00 -1.377204061843765291e-07 1.203930769511214027e+00 1.089729080981225984e+01 -4.852587670285434029e+00 -3.051810614908595287e+00 1.095061645895347491e+00 6.797473229841884956e-01 1.499723319073425598e+00 -2.200189577126760110e+00 4.301067006793204861e+00 -1.915718921271843733e+00 -1.318782089833669291e+00 -7.732999416143994109e-01 -2.293584439425754962e+00 2.403039093844290708e+00 4.699593756738439154e+00 9.840326187477916875e+00 2.483189167351788906e-03 8.781181657127034024e-01 -8.689767827610198836e+00 8.164635438338201823e+00 -1.192470959355932623e-09 1.561791082725133961e+01 2.419391001102146443e+00 -8.450992855764869915e+00 2.808952395249859624e+00 -2.656297371000555518e+00 -7.509504890472083360e+00 5.762392030780205232e+00 2.192499590722355229e+00 2.777888219617653753e+00 2.047275087924171455e+00 7.308253714118425649e-03 7.466042904061487295e-01 9.644427842165343989e+00 -2.539669871137639312e+00 -1.773510544809983713e+00 4.056327399689406421e-02 3.694326104098056618e+00 1.768714635755599322e-05 -1.610193568370550832e+00 3.876353504355585233e-01 -1.711358679264981308e+00 -2.717489594660182028e+00 -3.477690511658779737e+00 2.171809233354463853e+00 -1.333926049888663368e+00 2.153032889327275378e-04 1.746036675186597220e+00 8.570944690687095635e-01 -2.859977616406254697e+00 -3.124174359125948541e+00 -1.233986412979472869e+00 -6.010888757763981793e+00 -8.317830451476211806e+00 4.255769726984128809e+00 -1.314177410989639228e+01 -5.858216663992085182e-01 3.543128027813863490e+00 -6.504061687422193927e+00 2.649630541411950091e+00 -1.693237266201451430e+00 7.945718543192264782e+00 -7.671333950848796768e+00 2.603445146199002913e+00 7.868103721240966575e-01 -2.638461609842266853e+00 6.376273963567249403e+00
