-1.445742630879117419e-01 4.302960452557033300e+00 1.545677336517328193e+00 -1.742592904839365353e+00 3.858244492529042002e+00 -1.291658279739502369e-01 3.524848561365483857e+00 3.633526971299699593e+00 -1.186512390094135760e+01 -1.883338918112488880e+00 3.899247607007543692e+00 -4.121925125516623822e+00 -4.198385697239410902e-06 1.229996007154882109e+00 1.100314062022416550e+01 -4.785366509612019925e+00 -2.811958358350126641e+00 1.064944628101147206e+00 6.797478018405935796e-01 1.557776409284231667e+00 -2.200156704778125416e+00 4.299212891563916727e+00 -2.069750579820194503e+00 -1.322387173857916265e+00 -8.146379246456841861e-01 -1.904572345295301838e+00 2.488853849311397859e+00 4.991097977675454267e+00 9.832129938720534312e+00 2.203453901538382324e-03 9.026346689417202862e-01 -8.640453459445570417e+00 8.280380784868814459e+00 2.674204062808236584e-06 1.575540291679132388e+01 2.831741953700076753e+00 -8.412530695963395644e+00 3.000395712806866122e+00 -2.685399339611768799e+00 -7.683322569480604436e+00 5.828107224207626835e+00 2.223760284860974767e+00 2.786292284726432644e+00 2.130607326254839062e+00 1.982828089109038919e-02 6.553657249291298115e-01 9.790521734936264764e+00 -2.607724830125118576e+00 -1.892667859404730812e+00 6.988102165872160654e-02 3.678285570500192225e+00 -1.774209450655487852e-01 -1.525906022472737211e+00 5.661060824664650992e-01 -1.715038061191722196e+00 -2.595235821232325435e+00 -3.476872479850972031e+00 2.220076259549380371e+00 -1.378560936506060930e+00 1.146767566054683303e-03 1.930084891550496229e+00 8.363526593446074520e-01 -2.776321003583528846e+00 -3.120100453244642580e+00 -1.425172359088669793e+00 -6.008889159865984375e+00 -8.327173010001772013e+00 4.289344916538730956e+00 -1.320623881478467254e+01 -6.717512177826375774e-01 3.548375705508249212e+00 -6.492939962814096688e+00 2.566906981088678208e+00 -1.683243129130824967e+00 7.898504818244486358e+00 -7.625311307267342187e+00 2.298169039772042677e+00 7.253867210520990039e-01 -2.671276831188504008e+00 6.206030032366333771e+00
