-1.316880505698453663e-01 4.301211944891441874e+00 1.512920306690863859e+00 -1.940773288488043535e+00 3.853987686749003494e+00 -1.291645450184691901e-01 3.528776856515368099e+00 3.653510796486942880e+00 -1.165740320030522170e+01 -1.904171259083434542e+00 3.981005654357849366e+00 -4.093450967245482630e+00 4.180046734160474643e-07 1.525676292150404789e+00 1.091989532831051157e+01 -4.871844113071941429e+00 -2.870037383971989708e+00 1.088992116474137184e+00 6.797478090208513013e-01 1.557831477762398720e+00 -2.200196194518724280e+00 4.299733229813780255e+00 -1.928840216273729702e+00 -1.321510793311887921e+00 -7.732565074268711314e-01 -2.100147455199840696e+00 2.456789028409700926e+00 4.595839217614652306e+00 9.849242122127476406e+00 2.764127180329788332e-03 8.942280665902646586e-01 -8.671972109007278107e+00 8.185116461265339538e+00 -9.018118849560939234e-08 1.557724623794104701e+01 2.322759627548246275e+00 -8.430363047263663034e+00 2.873143545861049475e+00 -2.659539283990884240e+00 -7.581505284605288608e+00 5.753906923391489237e+00 2.192334338603307842e+00 2.837454378321025761e+00 2.252813796421022641e+00 1.038997466922531553e-02 6.399984136522363087e-01 9.546339041105484924e+00 -2.537009197755720979e+00 -1.779299160679276737e+00 8.974409940308039624e-02 3.615893055328243122e+00 2.830408018210935983e-04 -1.558965641438526228e+00 3.879123089440881800e-01 -1.696615060209179182e+00 -2.476198963084189852e+00 -3.486772730990473246e+00 2.200508621385946828e+00 -1.354190153126717533e+00 3.099973809734502764e-03 1.698327506947900467e+00 8.366162445573265272e-01 -2.654465723515621711e+00 -3.186884991625943631e+00 -1.207307542065756634e+00 -6.010303003744058792e+00 -8.298150201027878481e+00 4.265113293794446925e+00 -1.312524275748435088e+01 -6.921933493363442436e-01 3.545779147176566948e+00 -6.495058190565447198e+00 2.575420088935382434e+00 -1.619110555699688092e+00 8.083145510279218016e+00 -7.631499802599482685e+00 2.096019340484964300e+00 7.581832512785373623e-01 -2.625993990883409346e+00 6.306976087523816332e+00
