-4.269848793679716092e-02 4.199025463941303826e+00 1.384517517905335504e+00 -2.827782724048776952e+00 3.535915884100965911e+00 2.659050600299151575e-04 3.586229154837853095e+00 3.414553119236003464e+00 -1.140477675316989803e+01 -1.714439233980926014e+00 4.550106404846291142e+00 -2.770105942599521143e+00 4.501825261374776954e-02 1.245344326174001592e+00 1.076043476275498456e+01 -4.822962130962122451e+00 -2.953063218462863571e+00 1.206205290809121200e+00 6.912314790012026311e-01 1.296977917868722185e+00 -2.199191182752313622e+00 4.332063259764032281e+00 -1.868713923956090373e+00 -1.073708237656759268e+00 -7.918821253522692061e-01 -1.305536693546453186e+00 2.495701797098017760e+00 2.780518645704369352e+00 1.006388047699405952e+01 1.052275555689577424e-02 8.300306538037052206e-01 -8.791648203523610761e+00 7.365324644737959225e+00 -1.849393837270591201e-07 1.525532061833707331e+01 1.146932602495753187e-03 -8.327427250951211946e+00 2.692577207336748657e+00 -2.596232620998722762e+00 -7.397856972833366740e+00 5.267484708805053373e+00 2.154115453072332098e+00 2.582534650007477950e+00 2.245181878434804990e+00 7.972220918910200016e-02 6.191581563199852756e-01 9.080453575922327047e+00 -2.315397362617412913e+00 -1.761630458950491196e+00 9.236993332119430855e-01 3.580068356844163358e+00 9.656812858836037738e-02 -1.582003923896285302e+00 1.024873593511188341e+00 -2.127376299364305723e+00 -2.724454144366906139e+00 -3.530335492772007644e+00 2.369832362405544846e+00 -1.181125539406317371e+00 2.984606952085367970e-01 1.784238699647168858e+00 8.101647267437127597e-01 -2.878556912432980397e+00 -3.211199449531195516e+00 -1.462027575031260129e+00 -6.016426148552037390e+00 -8.051323144099615803e+00 3.590197899600176434e+00 -1.216258774062452908e+01 -6.180533766875573320e-01 3.508253778480423524e+00 -6.364135659124396049e+00 2.783621685493395947e+00 -1.372029879265157737e+00 8.333497218080250235e+00 -7.421217113765670170e+00 1.084866977203909233e+00 1.080370665380866839e-02 -1.673604698785178702e+00 6.514495268618137658e+00
