-1.502412642605148625e-03 4.172477546438281060e+00 1.494759658854993623e+00 -3.604826396561525925e+00 3.127177065140790635e+00 4.054349339537384467e-02 4.333299509999135601e+00 3.583470309824456912e+00 -1.150441001216701054e+01 -2.144825950588561181e+00 4.266918529933424686e+00 -2.774799027311091404e+00 2.688178250767711552e-03 1.545999033678234547e+00 1.103776827753751100e+01 -4.596225387711804444e+00 -2.929957818509968615e+00 8.717900689510281742e-01 1.134918925248920019e+00 1.441607097768908829e+00 -2.200568451299704353e+00 4.343507490227310974e+00 -2.096874529264248999e+00 -1.002948976652815904e+00 -7.962662853053127376e-01 -1.548723525531769063e+00 2.445767292012851257e+00 4.198479954051252072e+00 1.024141725691670679e+01 8.317239280125625529e-04 7.547696043340250682e-01 -8.867313733023211242e+00 7.628426655952228685e+00 6.836600129466549483e-05 1.572455842676278870e+01 2.677433063171064997e+00 -8.442551442489977021e+00 2.669440166488395771e+00 -2.709805469583981274e+00 -7.151200622389758621e+00 5.832817317058322182e+00 2.058675170062270077e+00 2.922054658850649300e+00 1.617939452619614249e+00 2.653300074595036917e-01 6.182834152055057819e-01 9.862632671941852891e+00 -2.477685377694271551e+00 -1.613113136847828644e+00 1.597498379401631752e-01 3.419310647761470978e+00 2.145480899343906941e-02 -1.657184525249115081e+00 1.092000120047901701e+00 -2.128469208381633671e+00 -2.794473305217734183e+00 -3.390222943404897382e+00 2.423689614240418955e+00 -1.125815677358731337e+00 1.763488206181432552e-02 9.761556522554302173e-01 1.016123651799332173e+00 -3.301729244579302502e+00 -3.964954918489012492e+00 -2.875402472582492486e+00 -6.015756006018956548e+00 -8.129901341733031472e+00 3.605565976755888524e+00 -1.271861775066053646e+01 -6.179192990025761389e-01 3.515963606038901457e+00 -6.383880595361120847e+00 2.782609498235633971e+00 -1.020106476746465596e+00 8.752509082193364875e+00 -7.153547456906271584e+00 1.775938879161528261e+00 1.517358589002657529e-04 -1.856701840831635586e+00 6.464074775939070427e+00
