1.258338510621017425e+00 2.495343266261307869e-01 -2.415267478648269073e+00 -2.355081635138168111e-06 -4.701478839004435972e-02 1.146810082097201144e+00 -3.051434572900584286e+00 5.071192831876516038e+00 -1.368321867293052918e+01 -4.554470630251624685e-01 8.250801076297364922e-01 1.718318028238343675e+00 -1.116608589190948964e+00 -6.290307121165619186e+00 -1.214054964158332167e-01 3.493935183704655056e+00 2.287340769177793609e-01 1.548320512752555445e+00 -4.075840447628092278e+00 4.484148592816206147e-01 8.355479319934953075e-01 -1.833703027434672173e+00 -6.216407455813975247e+00 -2.359312142221470676e+00 1.355774047197828791e+00 2.450359481784294857e+00 1.229173851395477746e+00 -6.666981242721356615e+00 2.600223338869169343e+00 1.072707814974070833e-01 1.331697858065963969e+00 -4.790099575749523497e-01 3.140182981710222254e+00 3.149975271007297906e+00 -3.052327954206427232e-02 -4.004209448321626397e+00 2.573035804417716399e+00 4.678536487524636023e+00 -5.121857504165115982e-01 4.043362241201230667e+00 1.095860843877719676e-02 2.787811077746487065e+00 -1.877795759079520233e-01 -2.478233264988858320e+00 -9.827810492400622655e-01 -7.640112300756607411e+00 7.937443341042580425e-01 1.105016720979699585e+01 -1.938412662722915347e-01 5.011389859603801789e+00 3.469955140022922713e+00 -6.949476521681322572e-01 -2.542850840520149286e-02 -9.365769442454211502e-01 -2.755231509058531980e+00 6.952531796682882792e+00 4.081818608058369158e+00 5.410371556779184132e+00 9.015363489554341359e-02 4.538456806345299577e-01 6.895620432729414606e-01 4.021350355704552904e+00 -7.296455913179094033e-01 1.107182313279164054e+00 4.367500961620983668e-01 1.169315484060841737e+00 6.410235397885934994e+00 -4.828476060404518933e+00 1.005553247287628071e+00 -4.394113672007244453e+00 -7.491366370732278623e-01 -2.912474757870110675e+00 -4.711214359914666083e-01 -4.056306141849774782e+00 1.831373716722846545e+00 4.384223458995090660e-04 3.152803623559107482e+00 -1.310891869640736829e+01 4.385715226258656507e+00 -4.722124482438231574e+00
